Language model created by QuickLM on Thu May 21 04:28:19 EDT 2015
Copyright (c) 1996-2010 Carnegie Mellon University and Alexander I. Rudnicky

The model is in standard ARPA format, designed by Doug Paul while he was at MITRE.

The code that was used to produce this language model is available in Open Source.
Please visit http://www.speech.cs.cmu.edu/tools/ for more information

The (fixed) discount mass is 0.5. The backoffs are computed using the ratio method.
This model based on a corpus of 9 sentences and 11 words

\data\
ngram 1=11
ngram 2=18
ngram 3=9

\1-grams:
-0.7782 </s> -0.3010
-0.7782 <s> -0.2218
-1.7324 CALIBRATE -0.2218
-1.7324 CHOOSE -0.2218
-1.7324 INSTRUMENT -0.2218
-1.7324 ONE -0.2218
-1.7324 SLEEP -0.2218
-1.7324 THREE -0.2218
-1.7324 TROCAR -0.2218
-1.7324 TWO -0.2218
-1.7324 ZERO -0.2218

\2-grams:
-1.2553 <s> CALIBRATE 0.0000
-1.2553 <s> CHOOSE 0.0000
-1.2553 <s> INSTRUMENT 0.0000
-1.2553 <s> ONE 0.0000
-1.2553 <s> SLEEP 0.0000
-1.2553 <s> THREE 0.0000
-1.2553 <s> TROCAR 0.0000
-1.2553 <s> TWO 0.0000
-1.2553 <s> ZERO 0.0000
-0.3010 CALIBRATE </s> -0.3010
-0.3010 CHOOSE </s> -0.3010
-0.3010 INSTRUMENT </s> -0.3010
-0.3010 ONE </s> -0.3010
-0.3010 SLEEP </s> -0.3010
-0.3010 THREE </s> -0.3010
-0.3010 TROCAR </s> -0.3010
-0.3010 TWO </s> -0.3010
-0.3010 ZERO </s> -0.3010

\3-grams:
-0.3010 <s> CALIBRATE </s>
-0.3010 <s> CHOOSE </s>
-0.3010 <s> INSTRUMENT </s>
-0.3010 <s> ONE </s>
-0.3010 <s> SLEEP </s>
-0.3010 <s> THREE </s>
-0.3010 <s> TROCAR </s>
-0.3010 <s> TWO </s>
-0.3010 <s> ZERO </s>

\end\
